<?xml version="1.0"?>
<opencv_storage>
<cascade>
  <stageType>BOOST</stageType>
  <featureType>HAAR</featureType>
  <height>50</height>
  <width>50</width>
  <stageParams>
    <boostType>GAB</boostType>
    <minHitRate>9.9900001287460327e-01</minHitRate>
    <maxFalseAlarm>5.0000000000000000e-01</maxFalseAlarm>
    <weightTrimRate>9.4999999999999996e-01</weightTrimRate>
    <maxDepth>1</maxDepth>
    <maxWeakCount>100</maxWeakCount></stageParams>
  <featureParams>
    <maxCatCount>0</maxCatCount>
    <featSize>1</featSize>
    <mode>ALL</mode></featureParams>
  <stageNum>15</stageNum>
  <stages>
    <!-- stage 0 -->
    <_>
      <maxWeakCount>4</maxWeakCount>
      <stageThreshold>-8.4619885683059692e-01</stageThreshold>
      <weakClassifiers>
        <_>
          <internalNodes>
            0 -1 32 6.6385991871356964e-02</internalNodes>
          <leafValues>
            -8.6984813213348389e-01 5.7303369045257568e-01</leafValues></_>
        <_>
          <internalNodes>
            0 -1 28 -1.2539532966911793e-02</internalNodes>
          <leafValues>
            4.4520467519760132e-01 -8.0918902158737183e-01</leafValues></_>
        <_>
          <internalNodes>
            0 -1 51 -8.4721203893423080e-03</internalNodes>
          <leafValues>
            3.1600326299667358e-01 -8.5863780975341797e-01</leafValues></_>
        <_>
          <internalNodes>
            0 -1 39 -3.4554880112409592e-03</internalNodes>
          <leafValues>
            5.1683503389358521e-01 -5.7271361351013184e-01</leafValues></_></weakClassifiers></_>
    <!-- stage 1 -->
    <_>
      <maxWeakCount>6</maxWeakCount>
      <stageThreshold>-1.3099820613861084e+00</stageThreshold>
      <weakClassifiers>
        <_>
          <internalNodes>
            0 -1 22 8.8965564966201782e-02</internalNodes>
          <leafValues>
            -8.3116883039474487e-01 3.8636362552642822e-01</leafValues></_>
        <_>
          <internalNodes>
            0 -1 11 -4.2150054126977921e-02</internalNodes>
          <leafValues>
            5.2014243602752686e-01 -5.4344224929809570e-01</leafValues></_>
        <_>
          <internalNodes>
            0 -1 24 1.2204023078083992e-02</internalNodes>
          <leafValues>
            -6.7844581604003906e-01 3.1650492548942566e-01</leafValues></_>
        <_>
          <internalNodes>
            0 -1 34 4.8346016556024551e-03</internalNodes>
          <leafValues>
            -4.3072667717933655e-01 5.6549930572509766e-01</leafValues></_>
        <_>
          <internalNodes>
            0 -1 9 -6.7189127206802368e-02</internalNodes>
          <leafValues>
            6.6511911153793335e-01 -3.2103133201599121e-01</leafValues></_>
        <_>
          <internalNodes>
            0 -1 25 -1.7023364081978798e-02</internalNodes>
          <leafValues>
            4.9988204240798950e-01 -5.2844959497451782e-01</leafValues></_></weakClassifiers></_>
    <!-- stage 2 -->
    <_>
      <maxWeakCount>5</maxWeakCount>
      <stageThreshold>-1.1803995370864868e+00</stageThreshold>
      <weakClassifiers>
        <_>
          <internalNodes>
            0 -1 33 -1.4510133303701878e-02</internalNodes>
          <leafValues>
            5.0000000000000000e-01 -7.4501991271972656e-01</leafValues></_>
        <_>
          <internalNodes>
            0 -1 36 1.3723217416554689e-03</internalNodes>
          <leafValues>
            -7.7443945407867432e-01 1.9006511569023132e-01</leafValues></_>
        <_>
          <internalNodes>
            0 -1 30 9.4341374933719635e-03</internalNodes>
          <leafValues>
            -4.4517681002616882e-01 5.0379323959350586e-01</leafValues></_>
        <_>
          <internalNodes>
            0 -1 0 -1.4959088526666164e-02</internalNodes>
          <leafValues>
            4.9090179800987244e-01 -4.2446371912956238e-01</leafValues></_>
        <_>
          <internalNodes>
            0 -1 55 4.3328726314939559e-04</internalNodes>
          <leafValues>
            2.5973021984100342e-01 -9.7633725404739380e-01</leafValues></_></weakClassifiers></_>
    <!-- stage 3 -->
    <_>
      <maxWeakCount>5</maxWeakCount>
      <stageThreshold>-1.2935020923614502e+00</stageThreshold>
      <weakClassifiers>
        <_>
          <internalNodes>
            0 -1 7 1.1201905459165573e-01</internalNodes>
          <leafValues>
            -7.4803149700164795e-01 7.1428573131561279e-01</leafValues></_>
        <_>
          <internalNodes>
            0 -1 1 -3.2242678105831146e-02</internalNodes>
          <leafValues>
            6.3303917646408081e-01 -5.7598668336868286e-01</leafValues></_>
        <_>
          <internalNodes>
            0 -1 54 -1.5174532309174538e-02</internalNodes>
          <leafValues>
            5.1157104969024658e-01 -5.4114300012588501e-01</leafValues></_>
        <_>
          <internalNodes>
            0 -1 52 7.9571298556402326e-04</internalNodes>
          <leafValues>
            3.0416980385780334e-01 -8.5213315486907959e-01</leafValues></_>
        <_>
          <internalNodes>
            0 -1 45 -2.3098338861018419e-03</internalNodes>
          <leafValues>
            -7.3562949895858765e-01 2.6748925447463989e-01</leafValues></_></weakClassifiers></_>
    <!-- stage 4 -->
    <_>
      <maxWeakCount>4</maxWeakCount>
      <stageThreshold>-8.9100819826126099e-01</stageThreshold>
      <weakClassifiers>
        <_>
          <internalNodes>
            0 -1 15 2.6238131523132324e-01</internalNodes>
          <leafValues>
            -8.0135440826416016e-01 4.6728972345590591e-02</leafValues></_>
        <_>
          <internalNodes>
            0 -1 8 -6.7753821611404419e-02</internalNodes>
          <leafValues>
            5.4487353563308716e-01 -4.7906568646430969e-01</leafValues></_>
        <_>
          <internalNodes>
            0 -1 47 -3.5873806336894631e-04</internalNodes>
          <leafValues>
            3.6070567369461060e-01 -6.6980308294296265e-01</leafValues></_>
        <_>
          <internalNodes>
            0 -1 43 -1.2836947571486235e-03</internalNodes>
          <leafValues>
            -8.1937718391418457e-01 2.3694565892219543e-01</leafValues></_></weakClassifiers></_>
    <!-- stage 5 -->
    <_>
      <maxWeakCount>5</maxWeakCount>
      <stageThreshold>-1.1393543481826782e+00</stageThreshold>
      <weakClassifiers>
        <_>
          <internalNodes>
            0 -1 37 -2.7239579707384109e-02</internalNodes>
          <leafValues>
            1. -7.1428573131561279e-01</leafValues></_>
        <_>
          <internalNodes>
            0 -1 35 -6.2364703044295311e-03</internalNodes>
          <leafValues>
            -1. 2.7842845767736435e-02</leafValues></_>
        <_>
          <internalNodes>
            0 -1 66 -4.6986646950244904e-02</internalNodes>
          <leafValues>
            8.3236169815063477e-01 -2.4979496002197266e-01</leafValues></_>
        <_>
          <internalNodes>
            0 -1 44 -9.3023274093866348e-03</internalNodes>
          <leafValues>
            5.7150894403457642e-01 -3.6163729429244995e-01</leafValues></_>
        <_>
          <internalNodes>
            0 -1 74 -1.1342484503984451e-04</internalNodes>
          <leafValues>
            -7.7462548017501831e-01 3.3043277263641357e-01</leafValues></_></weakClassifiers></_>
    <!-- stage 6 -->
    <_>
      <maxWeakCount>5</maxWeakCount>
      <stageThreshold>-9.9504345655441284e-01</stageThreshold>
      <weakClassifiers>
        <_>
          <internalNodes>
            0 -1 69 -2.0757956430315971e-02</internalNodes>
          <leafValues>
            1. -7.1102660894393921e-01</leafValues></_>
        <_>
          <internalNodes>
            0 -1 46 -1.2486878782510757e-02</internalNodes>
          <leafValues>
            4.5867753028869629e-01 -4.3543821573257446e-01</leafValues></_>
        <_>
          <internalNodes>
            0 -1 65 -2.9103618115186691e-02</internalNodes>
          <leafValues>
            8.3540517091751099e-01 -2.4896696209907532e-01</leafValues></_>
        <_>
          <internalNodes>
            0 -1 63 -2.5882566114887595e-04</internalNodes>
          <leafValues>
            -7.6626497507095337e-01 2.7550858259201050e-01</leafValues></_>
        <_>
          <internalNodes>
            0 -1 76 9.5779796538408846e-06</internalNodes>
          <leafValues>
            2.0799806714057922e-01 -7.6923596858978271e-01</leafValues></_></weakClassifiers></_>
    <!-- stage 7 -->
    <_>
      <maxWeakCount>5</maxWeakCount>
      <stageThreshold>-1.3585439920425415e+00</stageThreshold>
      <weakClassifiers>
        <_>
          <internalNodes>
            0 -1 68 -3.3289730548858643e-02</internalNodes>
          <leafValues>
            6.8750000000000000e-01 -7.1814674139022827e-01</leafValues></_>
        <_>
          <internalNodes>
            0 -1 13 3.7710785865783691e-02</internalNodes>
          <leafValues>
            4.1882008314132690e-02 -9.3749642372131348e-01</leafValues></_>
        <_>
          <internalNodes>
            0 -1 40 -8.5476157255470753e-04</internalNodes>
          <leafValues>
            -9.1164165735244751e-01 1.2887847423553467e-01</leafValues></_>
        <_>
          <internalNodes>
            0 -1 61 4.3230378068983555e-03</internalNodes>
          <leafValues>
            -4.7948274016380310e-01 3.6422872543334961e-01</leafValues></_>
        <_>
          <internalNodes>
            0 -1 72 6.9148000329732895e-03</internalNodes>
          <leafValues>
            -3.3167499303817749e-01 5.3418707847595215e-01</leafValues></_></weakClassifiers></_>
    <!-- stage 8 -->
    <_>
      <maxWeakCount>6</maxWeakCount>
      <stageThreshold>-1.3950057029724121e+00</stageThreshold>
      <weakClassifiers>
        <_>
          <internalNodes>
            0 -1 49 -3.5514667630195618e-02</internalNodes>
          <leafValues>
            1.5151515603065491e-01 -7.4380165338516235e-01</leafValues></_>
        <_>
          <internalNodes>
            0 -1 56 -7.5973924249410629e-03</internalNodes>
          <leafValues>
            4.3052127957344055e-01 -4.4119322299957275e-01</leafValues></_>
        <_>
          <internalNodes>
            0 -1 50 -3.4687267616391182e-03</internalNodes>
          <leafValues>
            -9.0533870458602905e-01 2.0298737287521362e-01</leafValues></_>
        <_>
          <internalNodes>
            0 -1 21 3.5001322627067566e-02</internalNodes>
          <leafValues>
            1.8904815614223480e-01 -9.1879135370254517e-01</leafValues></_>
        <_>
          <internalNodes>
            0 -1 60 -1.7299696337431669e-03</internalNodes>
          <leafValues>
            2.8587409853935242e-01 -5.8372384309768677e-01</leafValues></_>
        <_>
          <internalNodes>
            0 -1 2 8.1512192264199257e-04</internalNodes>
          <leafValues>
            2.1828910708427429e-01 -8.7589609622955322e-01</leafValues></_></weakClassifiers></_>
    <!-- stage 9 -->
    <_>
      <maxWeakCount>6</maxWeakCount>
      <stageThreshold>-1.3508121967315674e+00</stageThreshold>
      <weakClassifiers>
        <_>
          <internalNodes>
            0 -1 62 1.3299519196152687e-02</internalNodes>
          <leafValues>
            -7.2495090961456299e-01 4.6341463923454285e-01</leafValues></_>
        <_>
          <internalNodes>
            0 -1 12 3.5345729440450668e-02</internalNodes>
          <leafValues>
            -3.6930203437805176e-01 6.3041609525680542e-01</leafValues></_>
        <_>
          <internalNodes>
            0 -1 20 4.1954993503168225e-04</internalNodes>
          <leafValues>
            1.9259704649448395e-01 -9.6513164043426514e-01</leafValues></_>
        <_>
          <internalNodes>
            0 -1 5 6.8480684421956539e-04</internalNodes>
          <leafValues>
            2.2674560546875000e-01 -7.7027577161788940e-01</leafValues></_>
        <_>
          <internalNodes>
            0 -1 16 1.1199355125427246e-01</internalNodes>
          <leafValues>
            -3.4754282236099243e-01 5.8461505174636841e-01</leafValues></_>
        <_>
          <internalNodes>
            0 -1 77 6.0356198810040951e-04</internalNodes>
          <leafValues>
            -3.2835909724235535e-01 5.6928068399429321e-01</leafValues></_></weakClassifiers></_>
    <!-- stage 10 -->
    <_>
      <maxWeakCount>5</maxWeakCount>
      <stageThreshold>-1.2314469814300537e+00</stageThreshold>
      <weakClassifiers>
        <_>
          <internalNodes>
            0 -1 38 -1.5213877893984318e-02</internalNodes>
          <leafValues>
            4.8837208747863770e-01 -7.3175543546676636e-01</leafValues></_>
        <_>
          <internalNodes>
            0 -1 19 4.9784556031227112e-02</internalNodes>
          <leafValues>
            -5.9529238939285278e-01 3.4313091635704041e-01</leafValues></_>
        <_>
          <internalNodes>
            0 -1 53 -7.6373427873477340e-04</internalNodes>
          <leafValues>
            -8.9311552047729492e-01 1.9535391032695770e-01</leafValues></_>
        <_>
          <internalNodes>
            0 -1 58 1.1469519231468439e-03</internalNodes>
          <leafValues>
            2.2285658121109009e-01 -8.0148184299468994e-01</leafValues></_>
        <_>
          <internalNodes>
            0 -1 29 -9.6141412854194641e-02</internalNodes>
          <leafValues>
            -3.2260966300964355e-01 6.4132881164550781e-01</leafValues></_></weakClassifiers></_>
    <!-- stage 11 -->
    <_>
      <maxWeakCount>5</maxWeakCount>
      <stageThreshold>-1.1321485042572021e+00</stageThreshold>
      <weakClassifiers>
        <_>
          <internalNodes>
            0 -1 41 3.6879856139421463e-02</internalNodes>
          <leafValues>
            -8.2499998807907104e-01 -1.3333334028720856e-01</leafValues></_>
        <_>
          <internalNodes>
            0 -1 3 -2.2638943046331406e-02</internalNodes>
          <leafValues>
            4.7247412800788879e-01 -4.2022526264190674e-01</leafValues></_>
        <_>
          <internalNodes>
            0 -1 6 2.3913767654448748e-03</internalNodes>
          <leafValues>
            -2.6963597536087036e-01 6.3518273830413818e-01</leafValues></_>
        <_>
          <internalNodes>
            0 -1 57 -1.0053545236587524e-02</internalNodes>
          <leafValues>
            3.8361042737960815e-01 -5.0746738910675049e-01</leafValues></_>
        <_>
          <internalNodes>
            0 -1 59 -8.2714593736454844e-04</internalNodes>
          <leafValues>
            -8.8388586044311523e-01 1.9851346313953400e-01</leafValues></_></weakClassifiers></_>
    <!-- stage 12 -->
    <_>
      <maxWeakCount>5</maxWeakCount>
      <stageThreshold>-9.3322145938873291e-01</stageThreshold>
      <weakClassifiers>
        <_>
          <internalNodes>
            0 -1 18 -2.1994583308696747e-02</internalNodes>
          <leafValues>
            2.8000000119209290e-01 -7.2799998521804810e-01</leafValues></_>
        <_>
          <internalNodes>
            0 -1 64 2.1407143212854862e-03</internalNodes>
          <leafValues>
            -4.1488692164421082e-01 5.0686526298522949e-01</leafValues></_>
        <_>
          <internalNodes>
            0 -1 17 3.4701693058013916e-01</internalNodes>
          <leafValues>
            -4.2314806580543518e-01 4.3838274478912354e-01</leafValues></_>
        <_>
          <internalNodes>
            0 -1 4 -8.5319206118583679e-02</internalNodes>
          <leafValues>
            5.7649111747741699e-01 -3.6111441254615784e-01</leafValues></_>
        <_>
          <internalNodes>
            0 -1 26 -1.5122103504836559e-03</internalNodes>
          <leafValues>
            -8.0520838499069214e-01 2.3674677312374115e-01</leafValues></_></weakClassifiers></_>
    <!-- stage 13 -->
    <_>
      <maxWeakCount>5</maxWeakCount>
      <stageThreshold>-1.0365325212478638e+00</stageThreshold>
      <weakClassifiers>
        <_>
          <internalNodes>
            0 -1 70 -5.1778350025415421e-03</internalNodes>
          <leafValues>
            5.0000000000000000e-01 -7.0656371116638184e-01</leafValues></_>
        <_>
          <internalNodes>
            0 -1 71 -5.1401648670434952e-03</internalNodes>
          <leafValues>
            2.8405159711837769e-01 -5.6208193302154541e-01</leafValues></_>
        <_>
          <internalNodes>
            0 -1 10 -2.4469706113450229e-04</internalNodes>
          <leafValues>
            4.8840638995170593e-01 -3.8240736722946167e-01</leafValues></_>
        <_>
          <internalNodes>
            0 -1 31 6.9052085746079683e-04</internalNodes>
          <leafValues>
            2.5419759750366211e-01 -7.4823969602584839e-01</leafValues></_>
        <_>
          <internalNodes>
            0 -1 48 6.2932638684287667e-05</internalNodes>
          <leafValues>
            -4.3506306409835815e-01 4.9194642901420593e-01</leafValues></_></weakClassifiers></_>
    <!-- stage 14 -->
    <_>
      <maxWeakCount>7</maxWeakCount>
      <stageThreshold>-1.2437700033187866e+00</stageThreshold>
      <weakClassifiers>
        <_>
          <internalNodes>
            0 -1 75 -8.8896322995424271e-03</internalNodes>
          <leafValues>
            6.0000002384185791e-01 -6.9523811340332031e-01</leafValues></_>
        <_>
          <internalNodes>
            0 -1 67 2.9865576652809978e-04</internalNodes>
          <leafValues>
            -5.6943321228027344e-01 2.1077805757522583e-01</leafValues></_>
        <_>
          <internalNodes>
            0 -1 27 2.5686270091682673e-03</internalNodes>
          <leafValues>
            1.9069547951221466e-01 -7.7409309148788452e-01</leafValues></_>
        <_>
          <internalNodes>
            0 -1 23 6.7796371877193451e-03</internalNodes>
          <leafValues>
            -2.5475990772247314e-01 6.6013675928115845e-01</leafValues></_>
        <_>
          <internalNodes>
            0 -1 73 -1.4056820655241609e-03</internalNodes>
          <leafValues>
            -7.9191601276397705e-01 2.1874038875102997e-01</leafValues></_>
        <_>
          <internalNodes>
            0 -1 42 -6.6011946182698011e-04</internalNodes>
          <leafValues>
            5.0464951992034912e-01 -3.3131390810012817e-01</leafValues></_>
        <_>
          <internalNodes>
            0 -1 14 -4.1298411088064313e-04</internalNodes>
          <leafValues>
            4.7787627577781677e-01 -3.7729555368423462e-01</leafValues></_></weakClassifiers></_></stages>
  <features>
    <_>
      <rects>
        <_>
          0 7 12 39 -1.</_>
        <_>
          6 7 6 39 2.</_></rects>
      <tilted>0</tilted></_>
    <_>
      <rects>
        <_>
          0 7 16 21 -1.</_>
        <_>
          8 7 8 21 2.</_></rects>
      <tilted>0</tilted></_>
    <_>
      <rects>
        <_>
          0 17 10 4 -1.</_>
        <_>
          0 18 10 2 2.</_></rects>
      <tilted>0</tilted></_>
    <_>
      <rects>
        <_>
          0 38 16 12 -1.</_>
        <_>
          8 38 8 12 2.</_></rects>
      <tilted>0</tilted></_>
    <_>
      <rects>
        <_>
          1 2 48 43 -1.</_>
        <_>
          13 2 24 43 2.</_></rects>
      <tilted>0</tilted></_>
    <_>
      <rects>
        <_>
          1 6 48 4 -1.</_>
        <_>
          1 7 48 2 2.</_></rects>
      <tilted>0</tilted></_>
    <_>
      <rects>
        <_>
          1 24 30 2 -1.</_>
        <_>
          1 24 15 1 2.</_>
        <_>
          16 25 15 1 2.</_></rects>
      <tilted>0</tilted></_>
    <_>
      <rects>
        <_>
          1 27 48 10 -1.</_>
        <_>
          13 27 24 10 2.</_></rects>
      <tilted>0</tilted></_>
    <_>
      <rects>
        <_>
          1 32 48 15 -1.</_>
        <_>
          13 32 24 15 2.</_></rects>
      <tilted>0</tilted></_>
    <_>
      <rects>
        <_>
          1 33 48 13 -1.</_>
        <_>
          13 33 24 13 2.</_></rects>
      <tilted>0</tilted></_>
    <_>
      <rects>
        <_>
          1 48 8 1 -1.</_>
        <_>
          5 48 4 1 2.</_></rects>
      <tilted>0</tilted></_>
    <_>
      <rects>
        <_>
          3 1 44 9 -1.</_>
        <_>
          14 1 22 9 2.</_></rects>
      <tilted>0</tilted></_>
    <_>
      <rects>
        <_>
          3 4 24 12 -1.</_>
        <_>
          3 4 12 6 2.</_>
        <_>
          15 10 12 6 2.</_></rects>
      <tilted>0</tilted></_>
    <_>
      <rects>
        <_>
          3 9 46 16 -1.</_>
        <_>
          3 9 23 8 2.</_>
        <_>
          26 17 23 8 2.</_></rects>
      <tilted>0</tilted></_>
    <_>
      <rects>
        <_>
          3 27 22 4 -1.</_>
        <_>
          3 28 22 2 2.</_></rects>
      <tilted>0</tilted></_>
    <_>
      <rects>
        <_>
          5 22 39 27 -1.</_>
        <_>
          18 31 13 9 9.</_></rects>
      <tilted>0</tilted></_>
    <_>
      <rects>
        <_>
          6 22 39 9 -1.</_>
        <_>
          19 25 13 3 9.</_></rects>
      <tilted>0</tilted></_>
    <_>
      <rects>
        <_>
          7 14 36 33 -1.</_>
        <_>
          19 25 12 11 9.</_></rects>
      <tilted>0</tilted></_>
    <_>
      <rects>
        <_>
          8 12 12 4 -1.</_>
        <_>
          12 16 4 4 3.</_></rects>
      <tilted>1</tilted></_>
    <_>
      <rects>
        <_>
          8 21 32 20 -1.</_>
        <_>
          8 26 32 10 2.</_></rects>
      <tilted>0</tilted></_>
    <_>
      <rects>
        <_>
          10 7 2 3 -1.</_>
        <_>
          9 8 2 1 3.</_></rects>
      <tilted>1</tilted></_>
    <_>
      <rects>
        <_>
          10 15 28 26 -1.</_>
        <_>
          10 15 14 13 2.</_>
        <_>
          24 28 14 13 2.</_></rects>
      <tilted>0</tilted></_>
    <_>
      <rects>
        <_>
          10 19 32 24 -1.</_>
        <_>
          10 25 32 12 2.</_></rects>
      <tilted>0</tilted></_>
    <_>
      <rects>
        <_>
          11 5 14 6 -1.</_>
        <_>
          11 5 7 3 2.</_>
        <_>
          18 8 7 3 2.</_></rects>
      <tilted>0</tilted></_>
    <_>
      <rects>
        <_>
          11 15 28 12 -1.</_>
        <_>
          18 15 14 12 2.</_></rects>
      <tilted>0</tilted></_>
    <_>
      <rects>
        <_>
          11 30 27 2 -1.</_>
        <_>
          20 30 9 2 2.</_></rects>
      <tilted>0</tilted></_>
    <_>
      <rects>
        <_>
          13 1 16 4 -1.</_>
        <_>
          12 2 16 2 2.</_></rects>
      <tilted>1</tilted></_>
    <_>
      <rects>
        <_>
          14 1 8 6 -1.</_>
        <_>
          12 3 8 2 3.</_></rects>
      <tilted>1</tilted></_>
    <_>
      <rects>
        <_>
          15 1 19 16 -1.</_>
        <_>
          15 5 19 8 2.</_></rects>
      <tilted>0</tilted></_>
    <_>
      <rects>
        <_>
          15 11 21 18 -1.</_>
        <_>
          15 17 21 6 2.</_></rects>
      <tilted>0</tilted></_>
    <_>
      <rects>
        <_>
          15 21 20 8 -1.</_>
        <_>
          15 23 20 4 2.</_></rects>
      <tilted>0</tilted></_>
    <_>
      <rects>
        <_>
          15 29 21 6 -1.</_>
        <_>
          15 32 21 3 2.</_></rects>
      <tilted>0</tilted></_>
    <_>
      <rects>
        <_>
          16 19 18 28 -1.</_>
        <_>
          16 26 18 14 2.</_></rects>
      <tilted>0</tilted></_>
    <_>
      <rects>
        <_>
          16 20 18 8 -1.</_>
        <_>
          16 22 18 4 2.</_></rects>
      <tilted>0</tilted></_>
    <_>
      <rects>
        <_>
          16 22 18 4 -1.</_>
        <_>
          16 24 18 2 2.</_></rects>
      <tilted>0</tilted></_>
    <_>
      <rects>
        <_>
          16 27 14 12 -1.</_>
        <_>
          16 27 7 6 2.</_>
        <_>
          23 33 7 6 2.</_></rects>
      <tilted>0</tilted></_>
    <_>
      <rects>
        <_>
          17 21 16 24 -1.</_>
        <_>
          21 21 8 24 2.</_></rects>
      <tilted>0</tilted></_>
    <_>
      <rects>
        <_>
          18 1 8 11 -1.</_>
        <_>
          20 3 4 11 2.</_></rects>
      <tilted>1</tilted></_>
    <_>
      <rects>
        <_>
          18 2 6 9 -1.</_>
        <_>
          20 4 2 9 3.</_></rects>
      <tilted>1</tilted></_>
    <_>
      <rects>
        <_>
          18 3 15 8 -1.</_>
        <_>
          18 5 15 4 2.</_></rects>
      <tilted>0</tilted></_>
    <_>
      <rects>
        <_>
          18 4 4 15 -1.</_>
        <_>
          19 4 2 15 2.</_></rects>
      <tilted>0</tilted></_>
    <_>
      <rects>
        <_>
          18 17 15 16 -1.</_>
        <_>
          18 25 15 8 2.</_></rects>
      <tilted>0</tilted></_>
    <_>
      <rects>
        <_>
          20 17 1 8 -1.</_>
        <_>
          20 21 1 4 2.</_></rects>
      <tilted>0</tilted></_>
    <_>
      <rects>
        <_>
          20 32 8 4 -1.</_>
        <_>
          22 34 4 4 2.</_></rects>
      <tilted>1</tilted></_>
    <_>
      <rects>
        <_>
          20 40 10 10 -1.</_>
        <_>
          20 45 10 5 2.</_></rects>
      <tilted>0</tilted></_>
    <_>
      <rects>
        <_>
          20 48 6 1 -1.</_>
        <_>
          22 48 2 1 2.</_></rects>
      <tilted>0</tilted></_>
    <_>
      <rects>
        <_>
          21 2 24 10 -1.</_>
        <_>
          21 2 12 5 2.</_>
        <_>
          33 7 12 5 2.</_></rects>
      <tilted>0</tilted></_>
    <_>
      <rects>
        <_>
          21 14 8 10 -1.</_>
        <_>
          21 19 8 5 2.</_></rects>
      <tilted>0</tilted></_>
    <_>
      <rects>
        <_>
          22 43 2 4 -1.</_>
        <_>
          22 44 2 2 2.</_></rects>
      <tilted>0</tilted></_>
    <_>
      <rects>
        <_>
          23 4 24 12 -1.</_>
        <_>
          23 4 12 6 2.</_>
        <_>
          35 10 12 6 2.</_></rects>
      <tilted>0</tilted></_>
    <_>
      <rects>
        <_>
          24 3 4 44 -1.</_>
        <_>
          24 3 2 22 2.</_>
        <_>
          26 25 2 22 2.</_></rects>
      <tilted>0</tilted></_>
    <_>
      <rects>
        <_>
          24 17 3 9 -1.</_>
        <_>
          24 20 3 3 2.</_></rects>
      <tilted>0</tilted></_>
    <_>
      <rects>
        <_>
          24 27 2 12 -1.</_>
        <_>
          24 33 2 6 2.</_></rects>
      <tilted>0</tilted></_>
    <_>
      <rects>
        <_>
          25 5 4 13 -1.</_>
        <_>
          26 5 2 13 2.</_></rects>
      <tilted>0</tilted></_>
    <_>
      <rects>
        <_>
          25 9 24 10 -1.</_>
        <_>
          31 9 12 10 2.</_></rects>
      <tilted>0</tilted></_>
    <_>
      <rects>
        <_>
          25 28 2 10 -1.</_>
        <_>
          25 28 1 5 2.</_>
        <_>
          26 33 1 5 2.</_></rects>
      <tilted>0</tilted></_>
    <_>
      <rects>
        <_>
          26 3 8 10 -1.</_>
        <_>
          26 8 8 5 2.</_></rects>
      <tilted>0</tilted></_>
    <_>
      <rects>
        <_>
          26 28 6 22 -1.</_>
        <_>
          26 39 6 11 2.</_></rects>
      <tilted>0</tilted></_>
    <_>
      <rects>
        <_>
          27 27 4 10 -1.</_>
        <_>
          28 28 2 10 2.</_></rects>
      <tilted>1</tilted></_>
    <_>
      <rects>
        <_>
          28 4 4 15 -1.</_>
        <_>
          29 4 2 15 2.</_></rects>
      <tilted>0</tilted></_>
    <_>
      <rects>
        <_>
          28 7 6 13 -1.</_>
        <_>
          31 7 3 13 2.</_></rects>
      <tilted>0</tilted></_>
    <_>
      <rects>
        <_>
          28 19 3 18 -1.</_>
        <_>
          29 25 1 6 9.</_></rects>
      <tilted>0</tilted></_>
    <_>
      <rects>
        <_>
          28 40 16 10 -1.</_>
        <_>
          28 40 8 5 2.</_>
        <_>
          36 45 8 5 2.</_></rects>
      <tilted>0</tilted></_>
    <_>
      <rects>
        <_>
          28 42 1 4 -1.</_>
        <_>
          27 43 1 2 2.</_></rects>
      <tilted>1</tilted></_>
    <_>
      <rects>
        <_>
          30 37 8 5 -1.</_>
        <_>
          32 39 4 5 2.</_></rects>
      <tilted>1</tilted></_>
    <_>
      <rects>
        <_>
          33 7 13 9 -1.</_>
        <_>
          30 10 13 3 3.</_></rects>
      <tilted>1</tilted></_>
    <_>
      <rects>
        <_>
          34 1 12 12 -1.</_>
        <_>
          30 5 12 4 3.</_></rects>
      <tilted>1</tilted></_>
    <_>
      <rects>
        <_>
          34 12 1 8 -1.</_>
        <_>
          32 14 1 4 2.</_></rects>
      <tilted>1</tilted></_>
    <_>
      <rects>
        <_>
          35 2 8 9 -1.</_>
        <_>
          32 5 8 3 3.</_></rects>
      <tilted>1</tilted></_>
    <_>
      <rects>
        <_>
          36 4 8 8 -1.</_>
        <_>
          34 6 8 4 2.</_></rects>
      <tilted>1</tilted></_>
    <_>
      <rects>
        <_>
          36 43 8 6 -1.</_>
        <_>
          38 43 4 6 2.</_></rects>
      <tilted>0</tilted></_>
    <_>
      <rects>
        <_>
          37 22 8 6 -1.</_>
        <_>
          37 22 8 3 2.</_></rects>
      <tilted>1</tilted></_>
    <_>
      <rects>
        <_>
          38 31 10 18 -1.</_>
        <_>
          43 31 5 18 2.</_></rects>
      <tilted>0</tilted></_>
    <_>
      <rects>
        <_>
          40 2 2 12 -1.</_>
        <_>
          40 2 1 12 2.</_></rects>
      <tilted>1</tilted></_>
    <_>
      <rects>
        <_>
          43 35 3 2 -1.</_>
        <_>
          43 36 3 1 2.</_></rects>
      <tilted>0</tilted></_>
    <_>
      <rects>
        <_>
          43 37 7 6 -1.</_>
        <_>
          41 39 7 2 3.</_></rects>
      <tilted>1</tilted></_>
    <_>
      <rects>
        <_>
          48 13 2 2 -1.</_>
        <_>
          48 13 1 1 2.</_>
        <_>
          49 14 1 1 2.</_></rects>
      <tilted>0</tilted></_>
    <_>
      <rects>
        <_>
          49 43 1 6 -1.</_>
        <_>
          49 43 1 3 2.</_></rects>
      <tilted>1</tilted></_></features></cascade>
</opencv_storage>
