<?xml version="1.0"?>
<opencv_storage>
<cascade>
  <stageType>BOOST</stageType>
  <featureType>HAAR</featureType>
  <height>50</height>
  <width>50</width>
  <stageParams>
    <boostType>GAB</boostType>
    <minHitRate>9.8000001907348633e-01</minHitRate>
    <maxFalseAlarm>5.0000000000000000e-01</maxFalseAlarm>
    <weightTrimRate>9.4999999999999996e-01</weightTrimRate>
    <maxDepth>1</maxDepth>
    <maxWeakCount>100</maxWeakCount></stageParams>
  <featureParams>
    <maxCatCount>0</maxCatCount>
    <featSize>1</featSize>
    <mode>ALL</mode></featureParams>
  <stageNum>6</stageNum>
  <stages>
    <!-- stage 0 -->
    <_>
      <maxWeakCount>3</maxWeakCount>
      <stageThreshold>-1.1115874052047729e+00</stageThreshold>
      <weakClassifiers>
        <_>
          <internalNodes>
            0 -1 8 -1.4446437358856201e-02</internalNodes>
          <leafValues>
            1. -9.6078431606292725e-01</leafValues></_>
        <_>
          <internalNodes>
            0 -1 9 2.5136393960565329e-03</internalNodes>
          <leafValues>
            -9.4617170095443726e-01 8.0215430259704590e-01</leafValues></_>
        <_>
          <internalNodes>
            0 -1 10 -7.3984183836728334e-04</internalNodes>
          <leafValues>
            7.9536861181259155e-01 -8.8311868906021118e-01</leafValues></_></weakClassifiers></_>
    <!-- stage 1 -->
    <_>
      <maxWeakCount>3</maxWeakCount>
      <stageThreshold>-1.1894690990447998e+00</stageThreshold>
      <weakClassifiers>
        <_>
          <internalNodes>
            0 -1 7 -5.1897395402193069e-02</internalNodes>
          <leafValues>
            6.6666668653488159e-01 -9.6062994003295898e-01</leafValues></_>
        <_>
          <internalNodes>
            0 -1 11 -7.8927204012870789e-03</internalNodes>
          <leafValues>
            5.9205353260040283e-01 -8.9611083269119263e-01</leafValues></_>
        <_>
          <internalNodes>
            0 -1 1 -8.6473710834980011e-03</internalNodes>
          <leafValues>
            8.3955979347229004e-01 -8.2089269161224365e-01</leafValues></_></weakClassifiers></_>
    <!-- stage 2 -->
    <_>
      <maxWeakCount>3</maxWeakCount>
      <stageThreshold>-1.0949413776397705e+00</stageThreshold>
      <weakClassifiers>
        <_>
          <internalNodes>
            0 -1 6 1.4249086380004883e-03</internalNodes>
          <leafValues>
            -9.5312500000000000e-01 1.</leafValues></_>
        <_>
          <internalNodes>
            0 -1 14 -1.0528419166803360e-02</internalNodes>
          <leafValues>
            8.6164551973342896e-01 -8.9707142114639282e-01</leafValues></_>
        <_>
          <internalNodes>
            0 -1 15 -1.0739991441369057e-02</internalNodes>
          <leafValues>
            7.5525504350662231e-01 -8.2003432512283325e-01</leafValues></_></weakClassifiers></_>
    <!-- stage 3 -->
    <_>
      <maxWeakCount>3</maxWeakCount>
      <stageThreshold>-1.1446237564086914e+00</stageThreshold>
      <weakClassifiers>
        <_>
          <internalNodes>
            0 -1 13 -2.1718129515647888e-02</internalNodes>
          <leafValues>
            6.6666668653488159e-01 -9.6062994003295898e-01</leafValues></_>
        <_>
          <internalNodes>
            0 -1 0 -4.5570246875286102e-02</internalNodes>
          <leafValues>
            1. -8.5157805681228638e-01</leafValues></_>
        <_>
          <internalNodes>
            0 -1 16 -2.1622725762426853e-03</internalNodes>
          <leafValues>
            6.6758424043655396e-01 -8.4760856628417969e-01</leafValues></_></weakClassifiers></_>
    <!-- stage 4 -->
    <_>
      <maxWeakCount>3</maxWeakCount>
      <stageThreshold>-1.3927161693572998e+00</stageThreshold>
      <weakClassifiers>
        <_>
          <internalNodes>
            0 -1 5 -7.5763426721096039e-03</internalNodes>
          <leafValues>
            6.6666668653488159e-01 -9.6062994003295898e-01</leafValues></_>
        <_>
          <internalNodes>
            0 -1 3 -7.8271277248859406e-02</internalNodes>
          <leafValues>
            8.0209922790527344e-01 -8.9768117666244507e-01</leafValues></_>
        <_>
          <internalNodes>
            0 -1 17 7.3073930107057095e-03</internalNodes>
          <leafValues>
            -8.7429368495941162e-01 4.6559488773345947e-01</leafValues></_></weakClassifiers></_>
    <!-- stage 5 -->
    <_>
      <maxWeakCount>3</maxWeakCount>
      <stageThreshold>-1.0846605300903320e+00</stageThreshold>
      <weakClassifiers>
        <_>
          <internalNodes>
            0 -1 12 -3.0880335718393326e-02</internalNodes>
          <leafValues>
            6.6666668653488159e-01 -9.6062994003295898e-01</leafValues></_>
        <_>
          <internalNodes>
            0 -1 4 -4.0465304628014565e-03</internalNodes>
          <leafValues>
            9.1239750385284424e-01 -8.6016225814819336e-01</leafValues></_>
        <_>
          <internalNodes>
            0 -1 2 -1.9764991477131844e-02</internalNodes>
          <leafValues>
            7.3613166809082031e-01 -8.3579862117767334e-01</leafValues></_></weakClassifiers></_></stages>
  <features>
    <_>
      <rects>
        <_>
          0 11 24 14 -1.</_>
        <_>
          0 11 12 7 2.</_>
        <_>
          12 18 12 7 2.</_></rects>
      <tilted>0</tilted></_>
    <_>
      <rects>
        <_>
          11 8 20 1 -1.</_>
        <_>
          16 13 10 1 2.</_></rects>
      <tilted>1</tilted></_>
    <_>
      <rects>
        <_>
          12 9 15 6 -1.</_>
        <_>
          17 9 5 6 3.</_></rects>
      <tilted>0</tilted></_>
    <_>
      <rects>
        <_>
          14 1 26 34 -1.</_>
        <_>
          14 1 13 17 2.</_>
        <_>
          27 18 13 17 2.</_></rects>
      <tilted>0</tilted></_>
    <_>
      <rects>
        <_>
          15 25 6 8 -1.</_>
        <_>
          15 27 6 4 2.</_></rects>
      <tilted>0</tilted></_>
    <_>
      <rects>
        <_>
          15 28 15 1 -1.</_>
        <_>
          20 33 5 1 3.</_></rects>
      <tilted>1</tilted></_>
    <_>
      <rects>
        <_>
          20 41 4 2 -1.</_>
        <_>
          20 41 2 1 2.</_>
        <_>
          22 42 2 1 2.</_></rects>
      <tilted>0</tilted></_>
    <_>
      <rects>
        <_>
          21 7 12 12 -1.</_>
        <_>
          17 11 12 4 3.</_></rects>
      <tilted>1</tilted></_>
    <_>
      <rects>
        <_>
          23 3 3 12 -1.</_>
        <_>
          24 7 1 4 9.</_></rects>
      <tilted>0</tilted></_>
    <_>
      <rects>
        <_>
          23 13 4 2 -1.</_>
        <_>
          24 14 2 2 2.</_></rects>
      <tilted>1</tilted></_>
    <_>
      <rects>
        <_>
          24 4 1 4 -1.</_>
        <_>
          24 6 1 2 2.</_></rects>
      <tilted>0</tilted></_>
    <_>
      <rects>
        <_>
          27 4 2 16 -1.</_>
        <_>
          27 8 2 8 2.</_></rects>
      <tilted>0</tilted></_>
    <_>
      <rects>
        <_>
          29 14 12 6 -1.</_>
        <_>
          33 18 4 6 3.</_></rects>
      <tilted>1</tilted></_>
    <_>
      <rects>
        <_>
          33 5 6 40 -1.</_>
        <_>
          33 5 3 20 2.</_>
        <_>
          36 25 3 20 2.</_></rects>
      <tilted>0</tilted></_>
    <_>
      <rects>
        <_>
          33 6 3 6 -1.</_>
        <_>
          31 8 3 2 3.</_></rects>
      <tilted>1</tilted></_>
    <_>
      <rects>
        <_>
          33 29 8 8 -1.</_>
        <_>
          35 31 4 8 2.</_></rects>
      <tilted>1</tilted></_>
    <_>
      <rects>
        <_>
          33 35 2 14 -1.</_>
        <_>
          33 42 2 7 2.</_></rects>
      <tilted>0</tilted></_>
    <_>
      <rects>
        <_>
          45 1 1 20 -1.</_>
        <_>
          45 1 1 10 2.</_></rects>
      <tilted>1</tilted></_></features></cascade>
</opencv_storage>
